digraph Tree {
node [shape=box, fontname="helvetica"] ;
edge [fontname="helvetica"] ;
0 [label="OverallQual <= 7.5\nsquared_error = 6306788585.349\nsamples = 1460\nvalue = 180921.196"] ;
1 [label="OverallQual <= 6.5\nsquared_error = 2426928665.05\nsamples = 1231\nvalue = 157832.433"] ;
0 -> 1 [labeldistance=2.5, labelangle=45, headlabel="True"] ;
3 [label="GrLivArea <= 1378.5\nsquared_error = 1411538921.037\nsamples = 912\nvalue = 140383.976"] ;
1 -> 3 ;
7 [label="TotalBsmtSF <= 1007.5\nsquared_error = 837746927.031\nsamples = 564\nvalue = 124907.778"] ;
3 -> 7 ;
15 [label="OverallQual <= 4.5\nsquared_error = 641983560.06\nsamples = 376\nvalue = 113919.918"] ;
7 -> 15 ;
25 [label="GrLivArea <= 808.0\nsquared_error = 606151582.989\nsamples = 105\nvalue = 94173.962"] ;
15 -> 25 ;
51 [label="squared_error = 390252613.514\nsamples = 22\nvalue = 70791.409"] ;
25 -> 51 ;
52 [label="OverallCond <= 4.5\nsquared_error = 480045238.888\nsamples = 83\nvalue = 100371.747"] ;
25 -> 52 ;
73 [label="squared_error = 388173572.779\nsamples = 23\nvalue = 86165.217"] ;
52 -> 73 ;
74 [label="TotalBsmtSF <= 644.5\nsquared_error = 408239142.176\nsamples = 60\nvalue = 105817.583"] ;
52 -> 74 ;
75 [label="squared_error = 368924195.011\nsamples = 21\nvalue = 91440.476"] ;
74 -> 75 ;
76 [label="squared_error = 258176957.682\nsamples = 39\nvalue = 113559.103"] ;
74 -> 76 ;
26 [label="BsmtFinSF1 <= 491.0\nsquared_error = 446265061.759\nsamples = 271\nvalue = 121570.565"] ;
15 -> 26 ;
39 [label="GarageArea <= 522.5\nsquared_error = 407048010.012\nsamples = 168\nvalue = 113836.488"] ;
26 -> 39 ;
55 [label="GrLivArea <= 1199.0\nsquared_error = 355472424.54\nsamples = 142\nvalue = 110320.049"] ;
39 -> 55 ;
63 [label="TotalBsmtSF <= 804.5\nsquared_error = 319956083.304\nsamples = 97\nvalue = 105011.784"] ;
55 -> 63 ;
65 [label="OverallCond <= 5.5\nsquared_error = 249922605.6\nsamples = 48\nvalue = 95380.062"] ;
63 -> 65 ;
97 [label="squared_error = 144209679.328\nsamples = 20\nvalue = 87109.65"] ;
65 -> 97 ;
98 [label="squared_error = 241677075.893\nsamples = 28\nvalue = 101287.5"] ;
65 -> 98 ;
66 [label="BsmtUnfSF <= 585.5\nsquared_error = 208661368.18\nsamples = 49\nvalue = 114446.939"] ;
63 -> 66 ;
87 [label="squared_error = 92902283.951\nsamples = 27\nvalue = 121794.444"] ;
66 -> 87 ;
88 [label="squared_error = 203160604.339\nsamples = 22\nvalue = 105429.545"] ;
66 -> 88 ;
64 [label="MoSold <= 5.5\nsquared_error = 240365948.792\nsamples = 45\nvalue = 121762.311"] ;
55 -> 64 ;
105 [label="squared_error = 215204007.561\nsamples = 23\nvalue = 116234.783"] ;
64 -> 105 ;
106 [label="squared_error = 201334948.628\nsamples = 22\nvalue = 127541.091"] ;
64 -> 106 ;
56 [label="squared_error = 252357872.226\nsamples = 26\nvalue = 133041.654"] ;
39 -> 56 ;
40 [label="GarageArea <= 415.0\nsquared_error = 253533587.767\nsamples = 103\nvalue = 134185.369"] ;
26 -> 40 ;
67 [label="1stFlrSF <= 869.5\nsquared_error = 251082399.409\nsamples = 47\nvalue = 124644.319"] ;
40 -> 67 ;
93 [label="squared_error = 298603119.229\nsamples = 21\nvalue = 115718.238"] ;
67 -> 93 ;
94 [label="squared_error = 96370177.515\nsamples = 26\nvalue = 131853.846"] ;
67 -> 94 ;
68 [label="1stFlrSF <= 984.0\nsquared_error = 115066560.427\nsamples = 56\nvalue = 142193.036"] ;
40 -> 68 ;
109 [label="squared_error = 101570629.714\nsamples = 35\nvalue = 139446.0"] ;
68 -> 109 ;
110 [label="squared_error = 104021088.435\nsamples = 21\nvalue = 146771.429"] ;
68 -> 110 ;
16 [label="YearBuilt <= 1958.5\nsquared_error = 504875149.154\nsamples = 188\nvalue = 146883.5"] ;
7 -> 16 ;
49 [label="LotFrontage <= 69.5\nsquared_error = 382140219.44\nsamples = 50\nvalue = 131856.6"] ;
16 -> 49 ;
81 [label="squared_error = 458182736.5\nsamples = 20\nvalue = 119314.0"] ;
49 -> 81 ;
82 [label="squared_error = 156648747.222\nsamples = 30\nvalue = 140218.333"] ;
49 -> 82 ;
50 [label="1stFlrSF <= 1151.0\nsquared_error = 437887038.101\nsamples = 138\nvalue = 152328.029"] ;
16 -> 50 ;
53 [label="GarageArea <= 407.0\nsquared_error = 261355273.438\nsamples = 72\nvalue = 142543.75"] ;
50 -> 53 ;
95 [label="squared_error = 258347825.444\nsamples = 26\nvalue = 134557.692"] ;
53 -> 95 ;
96 [label="LotArea <= 8996.5\nsquared_error = 206632279.064\nsamples = 46\nvalue = 147057.609"] ;
53 -> 96 ;
101 [label="squared_error = 193953606.771\nsamples = 24\nvalue = 141243.75"] ;
96 -> 101 ;
102 [label="squared_error = 143363863.636\nsamples = 22\nvalue = 153400.0"] ;
96 -> 102 ;
54 [label="OverallQual <= 5.5\nsquared_error = 412102981.258\nsamples = 66\nvalue = 163001.788"] ;
50 -> 54 ;
77 [label="squared_error = 345360584.148\nsamples = 26\nvalue = 151319.077"] ;
54 -> 77 ;
78 [label="MasVnrArea <= 100.0\nsquared_error = 309104588.298\nsamples = 40\nvalue = 170595.55"] ;
54 -> 78 ;
99 [label="squared_error = 305632846.99\nsamples = 20\nvalue = 178166.1"] ;
78 -> 99 ;
100 [label="squared_error = 197949875.0\nsamples = 20\nvalue = 163025.0"] ;
78 -> 100 ;
8 [label="GarageCars <= 1.5\nsquared_error = 1324189529.34\nsamples = 348\nvalue = 165466.089"] ;
3 -> 8 ;
19 [label="BsmtFinSF1 <= 142.5\nsquared_error = 865288483.417\nsamples = 101\nvalue = 140816.297"] ;
8 -> 19 ;
37 [label="YearRemodAdd <= 1966.5\nsquared_error = 466675166.29\nsamples = 55\nvalue = 126004.764"] ;
19 -> 37 ;
83 [label="squared_error = 348788625.89\nsamples = 30\nvalue = 117512.9"] ;
37 -> 83 ;
84 [label="squared_error = 417764000.0\nsamples = 25\nvalue = 136195.0"] ;
37 -> 84 ;
38 [label="2ndFlrSF <= 668.5\nsquared_error = 765963030.019\nsamples = 46\nvalue = 158525.739"] ;
19 -> 38 ;
79 [label="squared_error = 347395000.0\nsamples = 25\nvalue = 148720.0"] ;
38 -> 79 ;
80 [label="squared_error = 1013520440.181\nsamples = 21\nvalue = 170199.238"] ;
38 -> 80 ;
20 [label="KitchenAbvGr <= 1.5\nsquared_error = 1161784787.332\nsamples = 247\nvalue = 175545.559"] ;
8 -> 20 ;
27 [label="GrLivArea <= 1807.0\nsquared_error = 971185644.742\nsamples = 214\nvalue = 181321.257"] ;
20 -> 27 ;
33 [label="BsmtFinSF1 <= 617.0\nsquared_error = 596729198.712\nsamples = 156\nvalue = 174025.891"] ;
27 -> 33 ;
47 [label="YearBuilt <= 1978.5\nsquared_error = 402721997.228\nsamples = 105\nvalue = 166442.276"] ;
33 -> 47 ;
57 [label="OverallQual <= 5.5\nsquared_error = 438810668.25\nsamples = 57\nvalue = 157572.491"] ;
47 -> 57 ;
89 [label="squared_error = 353772057.324\nsamples = 21\nvalue = 147796.762"] ;
57 -> 89 ;
90 [label="squared_error = 400151736.111\nsamples = 36\nvalue = 163275.0"] ;
57 -> 90 ;
58 [label="BsmtFinSF1 <= 123.0\nsquared_error = 155501068.708\nsamples = 48\nvalue = 176975.146"] ;
47 -> 58 ;
103 [label="squared_error = 123098906.686\nsamples = 27\nvalue = 172033.593"] ;
58 -> 103 ;
104 [label="squared_error = 125399183.673\nsamples = 21\nvalue = 183328.571"] ;
58 -> 104 ;
48 [label="YearRemodAdd <= 1993.5\nsquared_error = 633974442.522\nsamples = 51\nvalue = 189639.216"] ;
33 -> 48 ;
69 [label="squared_error = 361720047.562\nsamples = 29\nvalue = 179567.241"] ;
48 -> 69 ;
70 [label="squared_error = 682862133.264\nsamples = 22\nvalue = 202915.909"] ;
48 -> 70 ;
34 [label="OverallCond <= 6.5\nsquared_error = 1450170928.924\nsamples = 58\nvalue = 200943.276"] ;
27 -> 34 ;
41 [label="squared_error = 1043973424.105\nsamples = 37\nvalue = 185074.054"] ;
34 -> 41 ;
42 [label="squared_error = 940383079.365\nsamples = 21\nvalue = 228903.333"] ;
34 -> 42 ;
28 [label="squared_error = 778623594.393\nsamples = 33\nvalue = 138091.03"] ;
20 -> 28 ;
4 [label="GrLivArea <= 1941.0\nsquared_error = 1971049955.987\nsamples = 319\nvalue = 207716.423"] ;
1 -> 4 ;
11 [label="TotalBsmtSF <= 1469.0\nsquared_error = 1243894899.002\nsamples = 239\nvalue = 194238.745"] ;
4 -> 11 ;
17 [label="GarageArea <= 407.5\nsquared_error = 831451877.329\nsamples = 198\nvalue = 185459.611"] ;
11 -> 17 ;
35 [label="GarageArea <= 384.0\nsquared_error = 482107166.783\nsamples = 43\nvalue = 163212.767"] ;
17 -> 35 ;
85 [label="squared_error = 644972164.461\nsamples = 23\nvalue = 154189.13"] ;
35 -> 85 ;
86 [label="squared_error = 93486573.047\nsamples = 20\nvalue = 173589.95"] ;
35 -> 86 ;
36 [label="YearBuilt <= 1978.5\nsquared_error = 752975962.01\nsamples = 155\nvalue = 191631.316"] ;
17 -> 36 ;
43 [label="squared_error = 967252892.25\nsamples = 23\nvalue = 164843.478"] ;
36 -> 43 ;
44 [label="1stFlrSF <= 767.0\nsquared_error = 568819229.989\nsamples = 132\nvalue = 196298.894"] ;
36 -> 44 ;
45 [label="squared_error = 346964722.945\nsamples = 23\nvalue = 168867.478"] ;
44 -> 45 ;
46 [label="GrLivArea <= 1730.5\nsquared_error = 423347651.704\nsamples = 109\nvalue = 202087.174"] ;
44 -> 46 ;
61 [label="BsmtFinSF1 <= 702.5\nsquared_error = 355714867.006\nsamples = 80\nvalue = 196724.238"] ;
46 -> 61 ;
91 [label="OpenPorchSF <= 58.0\nsquared_error = 244979444.409\nsamples = 59\nvalue = 193016.288"] ;
61 -> 91 ;
107 [label="squared_error = 167434976.479\nsamples = 37\nvalue = 189525.703"] ;
91 -> 107 ;
108 [label="squared_error = 320440430.785\nsamples = 22\nvalue = 198886.818"] ;
91 -> 108 ;
92 [label="squared_error = 519675036.916\nsamples = 21\nvalue = 207141.81"] ;
61 -> 92 ;
62 [label="squared_error = 311708347.077\nsamples = 29\nvalue = 216881.483"] ;
46 -> 62 ;
18 [label="LotArea <= 10367.5\nsquared_error = 1065997847.81\nsamples = 41\nvalue = 236635.537"] ;
11 -> 18 ;
59 [label="squared_error = 565481017.297\nsamples = 21\nvalue = 222393.19"] ;
18 -> 59 ;
60 [label="squared_error = 1154917900.0\nsamples = 20\nvalue = 251590.0"] ;
18 -> 60 ;
12 [label="TotalBsmtSF <= 1191.0\nsquared_error = 1979517700.562\nsamples = 80\nvalue = 247980.988"] ;
4 -> 12 ;
29 [label="YearRemodAdd <= 1998.5\nsquared_error = 990761769.388\nsamples = 49\nvalue = 232135.0"] ;
12 -> 29 ;
71 [label="squared_error = 913124596.159\nsamples = 27\nvalue = 221740.37"] ;
29 -> 71 ;
72 [label="squared_error = 790696783.316\nsamples = 22\nvalue = 244892.045"] ;
29 -> 72 ;
30 [label="squared_error = 2518151005.08\nsamples = 31\nvalue = 273027.871"] ;
12 -> 30 ;
2 [label="OverallQual <= 8.5\nsquared_error = 8893038849.977\nsamples = 229\nvalue = 305035.9"] ;
0 -> 2 [labeldistance=2.5, labelangle=-45, headlabel="False"] ;
5 [label="GrLivArea <= 1971.5\nsquared_error = 4058765722.773\nsamples = 168\nvalue = 274735.536"] ;
2 -> 5 ;
13 [label="BsmtFinSF1 <= 940.5\nsquared_error = 2332108528.579\nsamples = 103\nvalue = 249392.466"] ;
5 -> 13 ;
23 [label="GarageArea <= 678.0\nsquared_error = 1327343805.961\nsamples = 67\nvalue = 230072.642"] ;
13 -> 23 ;
31 [label="squared_error = 840987737.976\nsamples = 38\nvalue = 211136.605"] ;
23 -> 31 ;
32 [label="squared_error = 879111116.787\nsamples = 29\nvalue = 254885.379"] ;
23 -> 32 ;
24 [label="squared_error = 2214558805.323\nsamples = 36\nvalue = 285348.806"] ;
13 -> 24 ;
14 [label="1stFlrSF <= 1383.5\nsquared_error = 4164353743.939\nsamples = 65\nvalue = 314894.554"] ;
5 -> 14 ;
21 [label="squared_error = 2182202500.244\nsamples = 33\nvalue = 281147.242"] ;
14 -> 21 ;
22 [label="squared_error = 3822802872.687\nsamples = 32\nvalue = 349696.469"] ;
14 -> 22 ;
6 [label="GrLivArea <= 2229.0\nsquared_error = 12714598711.223\nsamples = 61\nvalue = 388486.082"] ;
2 -> 6 ;
9 [label="squared_error = 2218086011.703\nsamples = 35\nvalue = 341248.2"] ;
6 -> 9 ;
10 [label="squared_error = 19797069435.402\nsamples = 26\nvalue = 452075.538"] ;
6 -> 10 ;
}